{
  "networks": [
    {"layers":[{"out_depth":30,"out_sx":1,"out_sy":1,"layer_type":"input"},{"out_depth":10,"out_sx":1,"out_sy":1,"layer_type":"fc","num_inputs":30,"l1_decay_mul":0,"l2_decay_mul":1,"filters":[{"sx":1,"sy":1,"depth":30,"w":{"0":0.06647199755997413,"1":-1.4450139666907702,"2":0.07831965289200382,"3":-0.1795122933501039,"4":0.6372083220460484,"5":0.20978102976320417,"6":-1.465925705397368,"7":-0.05056580437215346,"8":-1.620086460965204,"9":-0.3809597721438843,"10":0.2577512570426988,"11":0.07157030055405951,"12":-1.4266463177829178,"13":0.3308501055059713,"14":0.27482218950496984,"15":-0.2536668418505708,"16":0.2144522945083426,"17":-1.4000654930176202,"18":-0.01787101268003564,"19":-1.4609359558212005,"20":0.06735195146199549,"21":0.2970188884134536,"22":-0.07091592409299977,"23":0.18903335131118185,"24":0.21135347228306708,"25":-0.22852018243039637,"26":-0.0018373516116136736,"27":-0.07020752156556175,"28":0.0009923709539566203,"29":-0.19847890036971266}},{"sx":1,"sy":1,"depth":30,"w":{"0":-0.016453683603975564,"1":0.3499985802105866,"2":0.2586707630653743,"3":0.26289512764793566,"4":0.07475096258616822,"5":-0.2888798980807349,"6":-0.03528405247656262,"7":0.060839140792742746,"8":-0.23450305572463745,"9":0.1398485125400863,"10":-0.03935617836942028,"11":-0.3278192750016908,"12":-0.1892914547520689,"13":-0.015436170591316078,"14":0.20403146978854952,"15":0.15814386161949384,"16":-0.0016647453002755141,"17":-0.06441559181121351,"18":-0.1825989811017632,"19":0.01941722867260111,"20":-0.28115359536520607,"21":-0.264590210930938,"22":0.14482826188292008,"23":0.15145817371096984,"24":-0.16009154100234385,"25":0.1947627451568579,"26":0.2068175513424374,"27":0.2623400917768954,"28":-0.18749826971553568,"29":-0.09774159626421813}},{"sx":1,"sy":1,"depth":30,"w":{"0":-0.054010439207451674,"1":-2.1592385461623986,"2":0.45743912088359445,"3":0.22403497359754598,"4":0.060964260986680265,"5":0.022733543809986476,"6":-1.9303169030177163,"7":-0.3147950472248352,"8":-2.1704341177894566,"9":-0.34202441777324105,"10":-0.13805287837878652,"11":0.4141120326950577,"12":-1.8996443165309422,"13":-0.03392625525179525,"14":-0.3329582824097322,"15":-0.03523724475502865,"16":-0.19634189120916654,"17":-1.8782793780578781,"18":0.137164411433557,"19":-2.2912597149681946,"20":-0.06881843558284818,"21":-0.06271231167874983,"22":-0.007593094122203777,"23":-0.3014487913366072,"24":0.025065975615038896,"25":0.22367322808581314,"26":0.012183287913808129,"27":-0.05996582906957317,"28":-0.18368611130239504,"29":-0.31127551082150356}},{"sx":1,"sy":1,"depth":30,"w":{"0":-0.003126631061857799,"1":0.029997274730709726,"2":0.06187509802483738,"3":-0.16804893658807332,"4":0.2511165968457641,"5":-0.006035199650451366,"6":0.04099252206889852,"7":-0.18765437947850394,"8":-0.22041884321092053,"9":-0.18113957196732902,"10":-0.04376759583418281,"11":-0.05646008972002456,"12":-0.02436664210431275,"13":-0.3937427821826634,"14":-0.298416397304081,"15":-0.13268230432741263,"16":-0.14732394765131493,"17":-0.24618216002554388,"18":0.14036038849864169,"19":0.19937790127710497,"20":0.06001095942110506,"21":-0.013639782690285342,"22":-0.13166703495610452,"23":-0.11888438807655334,"24":0.17540312278175035,"25":0.1878355723761961,"26":0.18726361190436921,"27":-0.1428929451498869,"28":0.4426958238206764,"29":-0.19685783217967023}},{"sx":1,"sy":1,"depth":30,"w":{"0":0.009265653610135585,"1":-0.3273733559457473,"2":0.043482581580163146,"3":0.07618924222251347,"4":-0.057775250262287844,"5":0.17566655296898465,"6":-0.09768249592372981,"7":-0.10411433797127705,"8":-0.09969790578560124,"9":-0.007876516469552572,"10":0.15372933337840375,"11":0.04896694553304431,"12":-0.14215246561456293,"13":-0.042597270450019466,"14":0.19461969515357083,"15":0.017556884018566817,"16":0.04865003652267943,"17":-0.10219958932476947,"18":-0.012496488250537062,"19":0.3710198875485391,"20":0.2904287850397609,"21":-0.18953199646653462,"22":0.11176396443151068,"23":-0.2972607344556286,"24":-0.07566750169558316,"25":-0.24422843229915597,"26":0.21174093315397044,"27":-0.0016657603983004825,"28":-0.09643906064308841,"29":0.1958616739987578}},{"sx":1,"sy":1,"depth":30,"w":{"0":-0.07344691632656737,"1":-0.010175241311241843,"2":0.01941623231919297,"3":-0.2756074532496015,"4":-0.17294088165011282,"5":0.43856287189648807,"6":-0.23735235068968433,"7":-0.38188331933357167,"8":-0.2706843925850157,"9":0.0006380913429079419,"10":-0.0791112000663553,"11":0.43281888177658345,"12":0.033214834495285186,"13":-0.06285643055688823,"14":0.22207305691186202,"15":-0.1530855341997584,"16":0.025401646772640868,"17":-0.14599676692323343,"18":0.06998265934558251,"19":-0.06342900984913812,"20":-0.11983911793686326,"21":-0.15680956936473114,"22":0.10727175803465636,"23":-0.056490155416304914,"24":-0.14000007840972262,"25":-0.0461585998528986,"26":-0.151351553837298,"27":0.18010506497139814,"28":-0.11713179962982757,"29":-0.0399722372627659}},{"sx":1,"sy":1,"depth":30,"w":{"0":-0.19800044911590886,"1":-0.02582438427047666,"2":-0.18784651371924874,"3":0.1997527311764654,"4":0.22564187744588574,"5":-0.06890924088202618,"6":-0.08874417503245002,"7":0.23014222373711396,"8":-0.013572025978587024,"9":-0.036486604546672574,"10":0.02566305607575515,"11":-0.29807854935439637,"12":0.00954020164318136,"13":-0.010529954411481654,"14":-0.13814447072736727,"15":-0.23203990311987066,"16":0.24155610320396512,"17":-0.006965950265427354,"18":-0.09638587129048498,"19":-0.13555376569977973,"20":0.11969546781348286,"21":-0.08676584609010755,"22":0.04703224197625902,"23":0.10461737566095625,"24":0.08375976901625452,"25":-0.17128373196912594,"26":0.15929730054882474,"27":0.4435272589758087,"28":-0.09596498063338843,"29":0.21459729644231887}},{"sx":1,"sy":1,"depth":30,"w":{"0":-0.06370942023848962,"1":-0.22544631401040321,"2":-0.16313218654275768,"3":-0.022017871046021632,"4":-0.2178553861157552,"5":-0.45816410004918423,"6":-0.22247666082062512,"7":0.012150818891030733,"8":0.04788691594075906,"9":-0.1675968693803836,"10":-0.18144658566631353,"11":-0.019475011203160215,"12":-0.17018111057548757,"13":-0.1973293354397697,"14":-0.03903512899933368,"15":0.03396802097219488,"16":-0.1577540891626804,"17":-0.14966878242744208,"18":0.2220751995060304,"19":0.041764151245767364,"20":-0.036414411270099284,"21":0.14387098564119497,"22":0.2478870058123084,"23":-0.1539289340068245,"24":0.07492612594986015,"25":-0.09293577789949371,"26":0.039794076161865796,"27":0.4691509790400466,"28":-0.16403060346428266,"29":-0.32325193416747344}},{"sx":1,"sy":1,"depth":30,"w":{"0":-0.20990427517892227,"1":0.08262713533552125,"2":0.21242754189914925,"3":-0.24647719206758134,"4":0.11651842891227264,"5":0.1208370930007916,"6":-0.17487089129796018,"7":0.08913226473409205,"8":-0.24216597626086042,"9":0.162190758972517,"10":-0.2629196105361814,"11":-0.37823808432258166,"12":0.05647758394300165,"13":-0.10058265091912241,"14":-0.10925706640411582,"15":-0.14265385472066963,"16":0.14362083419956218,"17":-0.0920723529917641,"18":-0.40194177415453725,"19":-0.025034848948814383,"20":-0.05581839697813442,"21":-0.11726709505558645,"22":-0.2546348135888738,"23":0.005077225671965747,"24":-0.23887926264062453,"25":-0.3659365195481303,"26":-0.033329657724794105,"27":-0.08254518662298496,"28":0.0476290005363452,"29":-0.306799758128698}},{"sx":1,"sy":1,"depth":30,"w":{"0":-0.28720179981740285,"1":0.0075483215627788446,"2":-0.17982866367526204,"3":-0.16027027504749317,"4":0.060853819258465405,"5":0.11255128726986864,"6":-0.30052456670843325,"7":-0.0742641374415799,"8":-0.31507575029317364,"9":-0.30798054434390926,"10":-0.07873325966608864,"11":-0.04328673201364154,"12":0.08971246927639931,"13":0.06594798284342748,"14":0.2197875273779773,"15":0.04655357906787735,"16":0.1266119725886968,"17":-0.06645809492959863,"18":-0.03488308076216639,"19":0.09534878139249338,"20":0.09347849106263849,"21":0.20496093052518438,"22":-0.02776641694157499,"23":-0.002921205311003275,"24":0.0016874742867015974,"25":-0.2711960843469072,"26":0.16965884463648367,"27":-0.2397623122429362,"28":-0.1431006259969936,"29":0.003016031076908552}}],"biases":{"sx":1,"sy":1,"depth":10,"w":{"0":0.09398991058802676,"1":0.09976970123807871,"2":0.09158802337383831,"3":0.1,"4":0.1,"5":0.1,"6":0.09973915361489745,"7":0.1,"8":0.09979134461154641,"9":0.09990128949668652}}},{"out_depth":10,"out_sx":1,"out_sy":1,"layer_type":"relu"},{"out_depth":10,"out_sx":1,"out_sy":1,"layer_type":"fc","num_inputs":10,"l1_decay_mul":0,"l2_decay_mul":1,"filters":[{"sx":1,"sy":1,"depth":10,"w":{"0":-0.1148834966953425,"1":-0.039373854019011646,"2":-0.22025168157404842,"3":-0.6597779960134464,"4":0.19342362174360034,"5":0.049450642364690336,"6":-0.7889157014003118,"7":0.5170117678192852,"8":0.05556320168133885,"9":0.05869637497994198}},{"sx":1,"sy":1,"depth":10,"w":{"0":-0.19359649928563322,"1":0.501069080288858,"2":0.04906195283751567,"3":0.43134847529877357,"4":0.38272205005665527,"5":0.0036538314672542494,"6":-0.12725131020469477,"7":-0.5737662759592277,"8":0.19771896036375042,"9":-0.12902108401587153}},{"sx":1,"sy":1,"depth":10,"w":{"0":-0.19282434321878658,"1":-0.1516750482254706,"2":0.009641440985089096,"3":0.10411027630624121,"4":0.29368760125745064,"5":-0.14080255403655828,"6":-0.34842268201312704,"7":0.113241652073333,"8":0.44687965981523003,"9":0.5623884967813598}},{"sx":1,"sy":1,"depth":10,"w":{"0":-0.6071846731503642,"1":-0.10649808866087636,"2":0.10786341410137675,"3":-0.1395638823978869,"4":-0.09427276217492421,"5":-0.30045049613774194,"6":-0.5951276892036813,"7":-0.215214116257645,"8":-0.05341549306912614,"9":-0.19827078442617058}},{"sx":1,"sy":1,"depth":10,"w":{"0":-0.17316653079153507,"1":-0.1358335817354333,"2":-0.27312617530983385,"3":-0.20597322098886162,"4":0.6106583983783166,"5":-0.07516174526156774,"6":0.11821295902637151,"7":-0.07612674158912171,"8":0.17705690598061005,"9":-0.24277566710229895}},{"sx":1,"sy":1,"depth":10,"w":{"0":-0.23116799173926666,"1":-0.12327889274283381,"2":-0.07656629451061935,"3":-0.10241314183882681,"4":-0.28651993987889113,"5":0.3135721946373964,"6":-0.49633833812262496,"7":0.256751351379294,"8":0.34182138584667315,"9":-0.3322284136098444}},{"sx":1,"sy":1,"depth":10,"w":{"0":-0.3363759761511461,"1":-0.0335677971936499,"2":-0.3763363325057341,"3":0.2919382388417209,"4":0.04807010231769345,"5":-0.6061144645779364,"6":-0.2572519939754221,"7":-0.20129555028471968,"8":0.30417084105013376,"9":0.07108467077195159}},{"sx":1,"sy":1,"depth":10,"w":{"0":-0.2119206018539827,"1":-0.2580330749938542,"2":0.0742742395636321,"3":-0.33756254512858946,"4":-0.42515808847028486,"5":-0.12439828375700838,"6":-0.2876756973125461,"7":0.46998312010271176,"8":0.2622177786925937,"9":0.22771880316925916}},{"sx":1,"sy":1,"depth":10,"w":{"0":-0.6997823819836875,"1":0.14197922002804841,"2":0.4306496529910893,"3":-0.08295860518914024,"4":0.17163355901370944,"5":-0.4804262481909215,"6":-0.4391359275648175,"7":-0.38524312732748306,"8":0.32874904552607764,"9":0.310838934823779}},{"sx":1,"sy":1,"depth":10,"w":{"0":0.045846344593365604,"1":-0.1822069103799907,"2":-0.4865465779664059,"3":0.06202825167357783,"4":0.21420700914256746,"5":-0.18538662886379803,"6":-0.29265859771480873,"7":0.3394108925148198,"8":0.21764556586768943,"9":0.33988923654386466}}],"biases":{"sx":1,"sy":1,"depth":10,"w":{"0":0.07687907857212968,"1":0.049565921324744584,"2":0.10738419274550383,"3":0.05946173285256029,"4":0.09064411841534356,"5":0.06450218360101805,"6":0.04738240005425287,"7":0.11354142250678266,"8":0.0807172147256922,"9":0.05575811128201467}}},{"out_depth":10,"out_sx":1,"out_sy":1,"layer_type":"relu"},{"out_depth":8,"out_sx":1,"out_sy":1,"layer_type":"fc","num_inputs":10,"l1_decay_mul":0,"l2_decay_mul":1,"filters":[{"sx":1,"sy":1,"depth":10,"w":{"0":-0.37225623186353896,"1":0.42180278923956305,"2":0.21284938000327236,"3":-0.38103256779387185,"4":0.20479605741725454,"5":-0.36963961162255915,"6":0.04061374985286819,"7":0.11622575014888482,"8":0.04527740298833813,"9":0.0371993792609785}},{"sx":1,"sy":1,"depth":10,"w":{"0":0.23310877513309497,"1":0.07754780255187253,"2":0.4378781084547013,"3":-0.3005588897673701,"4":0.24942204616072067,"5":-0.1593519847433866,"6":0.3762831303326017,"7":-0.7040698114749082,"8":0.07355880018046616,"9":0.4967317740278373}},{"sx":1,"sy":1,"depth":10,"w":{"0":-0.5225767812476149,"1":0.40047767776575594,"2":0.00626330985447719,"3":0.5103129382896667,"4":0.3618653478277982,"5":0.3078120500472977,"6":0.07770676938867753,"7":-0.027963573230973572,"8":-0.33795053764214233,"9":0.19514799804268684}},{"sx":1,"sy":1,"depth":10,"w":{"0":-0.45672268625542417,"1":0.0904888503374041,"2":-0.3751079431522067,"3":0.07596131293343202,"4":0.2601075400244436,"5":-0.18618799911854156,"6":0.0660676258140046,"7":0.5759948236429445,"8":-0.35958557211635905,"9":0.45348766087037906}},{"sx":1,"sy":1,"depth":10,"w":{"0":0.2608646378960162,"1":0.10035502079248743,"2":-0.14614150113580093,"3":0.0751577826426448,"4":-0.2254531574312781,"5":0.04881489284745237,"6":0.45418157330947295,"7":0.2005766787618939,"8":0.18579226848630645,"9":0.5973427739043998}},{"sx":1,"sy":1,"depth":10,"w":{"0":-0.245586088084282,"1":-0.09433185382186941,"2":0.0657316525106171,"3":0.004509097878951417,"4":0.2385760721122679,"5":-0.1454094866436984,"6":0.493628540981763,"7":0.03415108043706861,"8":0.23617886026899718,"9":-0.20497473572513403}},{"sx":1,"sy":1,"depth":10,"w":{"0":-0.043500200129344344,"1":0.6522076963618976,"2":-0.047162742390223285,"3":0.2327980970690908,"4":0.2143546149623837,"5":0.19481499123398896,"6":0.018053636073599416,"7":0.09116187934221111,"8":0.04998323586626118,"9":-0.047731611265846505}},{"sx":1,"sy":1,"depth":10,"w":{"0":0.3561163919250585,"1":-0.22624960906370475,"2":0.21771902863059703,"3":-0.43846398760764427,"4":-0.11883311518615904,"5":-0.2987962401764633,"6":0.1416960053333659,"7":0.43208677823622216,"8":-0.07946464431054295,"9":0.21507702209449814}}],"biases":{"sx":1,"sy":1,"depth":8,"w":{"0":0.024542247848352634,"1":-0.014884936514420874,"2":-0.01829056071514525,"3":0.021101205521450766,"4":-0.06376117088280162,"5":-0.0040936890895465015,"6":-0.050677502235628176,"7":0.00019904615867946053}}},{"out_depth":8,"out_sx":1,"out_sy":1,"layer_type":"regression","num_inputs":8}]}
  ]
}