{
  "networks": [
    {"layers":[{"out_depth":30,"out_sx":1,"out_sy":1,"layer_type":"input"},{"out_depth":10,"out_sx":1,"out_sy":1,"layer_type":"fc","num_inputs":30,"l1_decay_mul":0,"l2_decay_mul":1,"filters":[{"sx":1,"sy":1,"depth":30,"w":{"0":-0.013693525574143817,"1":-0.43002832629733945,"2":-0.09568947815298978,"3":-0.04672588659540163,"4":-0.03993049764401303,"5":0.004056159880925293,"6":-0.03751190478682291,"7":-0.3677400865806792,"8":-0.16084302782457696,"9":-0.04138875612455935,"10":0.02460377775542931,"11":0.0271910970352878,"12":-0.13907138757709858,"13":0.05295613699355971,"14":0.340392444659184,"15":-0.13074994280603092,"16":-0.06920291034957379,"17":0.13079668552991833,"18":-0.28649191044277056,"19":0.015336072602502497,"20":-0.1853687312514724,"21":0.12599381769712523,"22":-0.14301865251327023,"23":-0.2156247314509194,"24":0.2261355519178104,"25":-0.06165773199892362,"26":-0.07343549203857117,"27":0.0707136139778242,"28":0.04349375590068771,"29":-0.4142458401632741}},{"sx":1,"sy":1,"depth":30,"w":{"0":-0.2844016406822185,"1":-6.475944360621319,"2":0.04553438209401539,"3":-0.07468063354243769,"4":-0.19751359077927094,"5":0.04967840151146389,"6":-6.835178516214332,"7":-0.8199151328138268,"8":-5.129823882054784,"9":-0.4789916121172295,"10":-0.006017015296857344,"11":0.006147347551980704,"12":-6.1985770347057505,"13":0.3815860401139525,"14":-0.14707837487201064,"15":0.08753995010157298,"16":0.04243023073155985,"17":-6.702482139515305,"18":-0.701329139916698,"19":-5.035373232093643,"20":-0.2227319720485375,"21":0.0649835587084536,"22":0.08582378791525667,"23":-0.2659939440126037,"24":-0.16547678917371975,"25":-0.12415861790872337,"26":-0.25004420570035124,"27":-0.2507940812404248,"28":-0.26174407971892455,"29":0.04866381541286017}},{"sx":1,"sy":1,"depth":30,"w":{"0":-0.016918089249193007,"1":0.08884911969960575,"2":0.24588876969471035,"3":0.07006461407621874,"4":0.0899025584282063,"5":0.03866690560598166,"6":-0.013014906862092562,"7":0.01884475545362066,"8":0.054796424494135014,"9":0.03088717432750719,"10":0.10259145605011097,"11":0.18779569325187362,"12":-0.1450695186269045,"13":0.02137860591936745,"14":-0.09926839760048249,"15":-0.0033965216340821644,"16":-0.13039053710674012,"17":-0.09582009958344326,"18":-0.08141816893300718,"19":-0.0324214462987246,"20":-0.05203782406645765,"21":-0.08285646607284063,"22":-0.13056419408518874,"23":0.03285522062921133,"24":-0.13290730348636212,"25":-0.21180307036007762,"26":0.10483737201661963,"27":0.056534281129355164,"28":-0.01371623220018168,"29":0.027075333487551125}},{"sx":1,"sy":1,"depth":30,"w":{"0":-0.2589906933211434,"1":-6.898963228860924,"2":-0.0069578381648662995,"3":-0.14577272525776935,"4":0.444186439134784,"5":0.12880014049982663,"6":-7.156033205500943,"7":-0.7130686915345628,"8":-5.438731321747849,"9":-0.39858198594147287,"10":-0.28432358150504466,"11":0.39771141976482555,"12":-6.54984578629892,"13":-0.019917116315390566,"14":0.1246896901708842,"15":-0.3224244882412264,"16":-0.11391150349861354,"17":-6.629002198333864,"18":-0.6857224027468994,"19":-5.4680162591381745,"20":-0.591683336616034,"21":-0.28728750650733154,"22":-0.13137065248978078,"23":-0.0028972177024375522,"24":-0.3037592472838659,"25":-0.1720652347917995,"26":-0.06699162758032187,"27":-0.19961381108976384,"28":-0.18696580817794442,"29":-0.15139291728843932}},{"sx":1,"sy":1,"depth":30,"w":{"0":-0.06476940518870727,"1":-4.5322224130098965,"2":-0.07279108884274704,"3":-0.15655550802492038,"4":0.060346678413117937,"5":0.34243344170363993,"6":-4.878406140859946,"7":-0.20777556136348696,"8":-3.694292092240187,"9":-0.6214494953646386,"10":-0.02036252077915747,"11":0.0975092165854503,"12":-4.357889921928851,"13":0.11971355805627903,"14":-0.0009905071798723684,"15":-0.2373279095624375,"16":0.22800369604565537,"17":-5.28354190339645,"18":-0.26867053416476755,"19":-3.7562212927791148,"20":-0.44658399766686724,"21":-0.051962016682243165,"22":0.08062623220838795,"23":-0.18365488624648096,"24":-0.031974243443186265,"25":-0.06348774259041985,"26":-0.18645090854026733,"27":0.0353078107169982,"28":0.23083469172647256,"29":0.16169457447175858}},{"sx":1,"sy":1,"depth":30,"w":{"0":0.20272330198440222,"1":-3.6521298547898375,"2":0.09853395718963794,"3":-0.11403036837281806,"4":-0.039487070227676044,"5":0.18787506156709072,"6":-1.9768333025565528,"7":-0.6422370596506315,"8":-4.029696690341802,"9":-0.9629706084807933,"10":-0.4679391164682686,"11":-0.03195760737417946,"12":-3.782569569052853,"13":-0.1429955295400649,"14":0.008845961158017418,"15":0.0512652424067446,"16":-0.0802757947912202,"17":-2.0441508127184194,"18":-0.7222568245388614,"19":-3.8192489341554694,"20":-0.47771512861658233,"21":-0.11208484655619604,"22":-0.32973790395743297,"23":0.004856918277019218,"24":0.3266790737791661,"25":-0.04698506296101498,"26":0.0005127509104653939,"27":-0.3021115848477486,"28":-0.050338652813243304,"29":-0.15630341226111366}},{"sx":1,"sy":1,"depth":30,"w":{"0":-0.24350216094271088,"1":-0.3938971058837288,"2":-0.1850799488183482,"3":-0.006042236075898277,"4":0.22341612872509706,"5":0.15792248899289255,"6":-0.7159015491550029,"7":0.230681064415533,"8":-0.36715003537926155,"9":0.13379560567844828,"10":-0.11387355996681074,"11":-0.1656449551347234,"12":-0.8357347414685947,"13":0.14284810436344805,"14":-0.03156508848069082,"15":0.16139014401557916,"16":0.1628061256527258,"17":-0.3880271228487467,"18":-0.14551265158830823,"19":-0.17809578234839799,"20":-0.1237641689981028,"21":-0.12500435380710936,"22":-0.15525983897465198,"23":0.402024525457917,"24":-0.11882984148982073,"25":-0.5790320208547363,"26":-0.05860687654618585,"27":0.23511960531567838,"28":-0.018309221217892323,"29":0.10454459965114178}},{"sx":1,"sy":1,"depth":30,"w":{"0":-0.2272126200835891,"1":-19.291669995515605,"2":0.08522205145454276,"3":0.11589905638588967,"4":0.019991444453374384,"5":-0.020984004363118553,"6":-20.36714738753591,"7":-1.7715557045463386,"8":-16.052112929117385,"9":-1.8963380555299876,"10":-0.6807818940079869,"11":-0.19734020664195046,"12":-19.193796754299818,"13":0.12122545916726117,"14":-0.12617951974191993,"15":-0.009608107585870058,"16":-0.16703184092826437,"17":-20.340237152510294,"18":-2.38550160268947,"19":-15.762383440421537,"20":-1.725157440547163,"21":-0.20895003173553625,"22":-0.17949782976725656,"23":0.1579499099292312,"24":-0.4263379469812758,"25":-0.3936474398807878,"26":0.021270597647185304,"27":0.10729992754355828,"28":-0.2163119122308961,"29":-0.1912359725176518}},{"sx":1,"sy":1,"depth":30,"w":{"0":-0.1940449913423181,"1":-1.2235474076441146,"2":-0.29650417053375483,"3":-0.17407772177903708,"4":-0.09403260432514778,"5":-0.17458181606282708,"6":-1.2464479140360438,"7":-0.29847784034686037,"8":-0.8379103789972696,"9":0.017336835105889396,"10":-0.09155246469599364,"11":-0.0688978953644554,"12":-0.9460326602247209,"13":-0.09667717760988065,"14":0.25063320507649844,"15":0.15299052424230908,"16":-0.04230680187252735,"17":-0.7481294981894903,"18":0.08917027013239141,"19":-0.9754266600132355,"20":-0.03884632597941275,"21":0.028442292130961264,"22":0.0773800349713533,"23":0.17580846099691666,"24":-0.011476917390186978,"25":-0.038264412355070956,"26":0.27773448556176933,"27":0.1722146276864333,"28":0.08100319843695007,"29":0.2428135847642952}},{"sx":1,"sy":1,"depth":30,"w":{"0":-0.07451923817992223,"1":-9.504988296951115,"2":0.098344705203382,"3":-0.1237626091955761,"4":-0.3031827284171862,"5":0.1041537531694823,"6":-9.801375612080381,"7":-1.0871316831370856,"8":-8.070663385491605,"9":-1.034542021946692,"10":-0.5161619845260037,"11":-0.19377388325414222,"12":-9.842572093874063,"13":-0.004726398477602466,"14":-0.016594086179328584,"15":0.05173822932295952,"16":-0.2220538481830381,"17":-9.702581918315566,"18":-1.1052489971617396,"19":-7.7511126775839925,"20":-0.6510287174474444,"21":-0.2251184682117901,"22":-0.004852733519735794,"23":0.09960833013607535,"24":-0.3879980990860879,"25":-0.32372943666774123,"26":0.11391038272794195,"27":-0.10932698704302546,"28":0.19291555220453588,"29":-0.35986189994136747}}],"biases":{"sx":1,"sy":1,"depth":10,"w":{"0":0.1,"1":0.07472652460957464,"2":0.09988228872750649,"3":0.07345261694529923,"4":0.08132978409347033,"5":0.07921120585054998,"6":0.09758349741567628,"7":0.023643520684274583,"8":0.09555636047596727,"9":0.06234880271540363}}},{"out_depth":10,"out_sx":1,"out_sy":1,"layer_type":"relu"},{"out_depth":10,"out_sx":1,"out_sy":1,"layer_type":"fc","num_inputs":10,"l1_decay_mul":0,"l2_decay_mul":1,"filters":[{"sx":1,"sy":1,"depth":10,"w":{"0":0.2841540706401132,"1":-0.048329826706620775,"2":0.3246925938530711,"3":-0.48669950286729124,"4":-0.403495707094369,"5":0.21706045302758606,"6":0.2296369715720336,"7":-0.24104005363921613,"8":0.5885002195246772,"9":0.06674338484839513}},{"sx":1,"sy":1,"depth":10,"w":{"0":0.05745693830275642,"1":-0.47356425337014446,"2":-0.12180138388178696,"3":-0.7364655772710775,"4":-0.8795780294325483,"5":-0.4312480539941319,"6":-0.6467962854903382,"7":-0.2225656503287353,"8":-0.6256685753534457,"9":-0.3954432836545271}},{"sx":1,"sy":1,"depth":10,"w":{"0":-0.22600301422631705,"1":-0.058771978916358686,"2":0.0833729478246429,"3":-10.09031215206313,"4":-3.848839510217757,"5":0.0632291045808499,"6":-0.019717813434732605,"7":-4.034123871246417,"8":0.02225545013988497,"9":-16.094629739301443}},{"sx":1,"sy":1,"depth":10,"w":{"0":0.2272149618796157,"1":-0.01586256186687281,"2":0.011863267085102035,"3":-0.16756560421223513,"4":-0.19392554972905926,"5":0.4941834210783471,"6":-0.43911055040609276,"7":-0.18392000993760296,"8":-0.263483387939198,"9":0.09431364465127878}},{"sx":1,"sy":1,"depth":10,"w":{"0":0.15490553222005246,"1":-0.1734311034720216,"2":0.003492333796000086,"3":-0.10232007495984932,"4":0.21406596869414332,"5":-0.18905689824786212,"6":-0.3630148372993748,"7":-0.05262407779626003,"8":-0.7599426273170351,"9":1.1259128433747705}},{"sx":1,"sy":1,"depth":10,"w":{"0":-0.2841863325090598,"1":0.39533051640280253,"2":0.10545987180388912,"3":-0.31086419794809766,"4":-0.011521048624159688,"5":0.15120987706543465,"6":-0.08500219941686683,"7":0.04164483847991461,"8":-0.1737079438367735,"9":-0.7956824266592865}},{"sx":1,"sy":1,"depth":10,"w":{"0":0.4065166963257593,"1":0.33420612831431223,"2":0.23839125295808056,"3":0.18324283967959856,"4":0.03818419882089345,"5":-0.06954414240144656,"6":-0.08091542681886135,"7":-0.5728147152448413,"8":-0.04292125531734748,"9":-0.25118522272768684}},{"sx":1,"sy":1,"depth":10,"w":{"0":-0.0565704430014205,"1":-0.030539901506065947,"2":0.029712581224657066,"3":-0.02422159170036164,"4":-0.11512921380804775,"5":-0.18315371585572876,"6":-0.11886724395311776,"7":-0.15988293600857253,"8":-0.11526567808974483,"9":-0.08935780163003258}},{"sx":1,"sy":1,"depth":10,"w":{"0":0.372681538402998,"1":-0.48306505443216063,"2":0.07573832519928599,"3":-19.445936142762196,"4":-7.77610730873636,"5":0.39875925802082035,"6":-0.214512859179217,"7":-7.334458266272424,"8":0.3210224185612252,"9":-29.484449815331025}},{"sx":1,"sy":1,"depth":10,"w":{"0":-0.2696969205292351,"1":-0.29012532731703816,"2":-0.5628110188429493,"3":-0.4435878900626735,"4":-0.4813655513452584,"5":-0.4945158023882078,"6":-0.08987284125329303,"7":0.23533614778630066,"8":-0.13874166882696834,"9":0.03321547119773101}}],"biases":{"sx":1,"sy":1,"depth":10,"w":{"0":0.07001952884895604,"1":0.04527651212530054,"2":-0.026844359582634203,"3":0.09497121769950276,"4":0.06103146595416071,"5":0.05834139248761193,"6":0.02603765787090712,"7":0.04156397971303713,"8":-0.04115609094787796,"9":0.09862790630580535}}},{"out_depth":10,"out_sx":1,"out_sy":1,"layer_type":"relu"},{"out_depth":8,"out_sx":1,"out_sy":1,"layer_type":"fc","num_inputs":10,"l1_decay_mul":0,"l2_decay_mul":1,"filters":[{"sx":1,"sy":1,"depth":10,"w":{"0":-0.03795788833617867,"1":0.3679637338116244,"2":-0.06416735552898402,"3":-0.31465598301587117,"4":-0.3160282200976059,"5":0.08840786577986486,"6":0.1469953498617116,"7":0.17771178979641922,"8":0.845781978782802,"9":0.03582583563981636}},{"sx":1,"sy":1,"depth":10,"w":{"0":-0.01999133681954664,"1":0.12631698942409203,"2":17.040806261829204,"3":-0.10598183001344019,"4":0.2630856344491577,"5":0.2979817661322427,"6":-0.06387804102247965,"7":0.32838514879623604,"8":20.671572182492806,"9":0.1602740270073833}},{"sx":1,"sy":1,"depth":10,"w":{"0":0.3289923425609959,"1":0.3572870501701872,"2":48.50799492556848,"3":-0.02638964642589072,"4":-0.11452206147434589,"5":0.23291019374074542,"6":0.5652019729493485,"7":0.15006740885576808,"8":59.587407748612435,"9":-0.02856385131877028}},{"sx":1,"sy":1,"depth":10,"w":{"0":-0.03989864884663559,"1":0.26771759040449405,"2":-4.589570573826747,"3":-0.18140633812813226,"4":-0.0013727261591257856,"5":0.7070223257825077,"6":-0.3374554642416328,"7":-0.48096550857971104,"8":-6.637112596496814,"9":0.046997272470387506}},{"sx":1,"sy":1,"depth":10,"w":{"0":-0.31119829386848885,"1":0.16811320213824216,"2":-1.5402318961464725,"3":0.08890751160345647,"4":0.649988300567432,"5":0.02506427064013375,"6":-0.37189362840787643,"7":0.38684813767835574,"8":-1.9077576349056085,"9":0.13815108902221132}},{"sx":1,"sy":1,"depth":10,"w":{"0":0.2394651236635894,"1":0.15099077488369303,"2":-16.54901224185656,"3":0.12298192705316971,"4":-0.3004516911861781,"5":-0.4783723312442948,"6":-0.41622612516637275,"7":-0.06787874864155569,"8":-19.722248333054363,"9":0.4458437009140645}},{"sx":1,"sy":1,"depth":10,"w":{"0":-0.24543793483300705,"1":0.06469448289795833,"2":27.934804460204393,"3":-0.18714207757746587,"4":-0.2703084166066627,"5":0.07823709908555862,"6":0.22715724757120287,"7":-0.5751669331327965,"8":34.00297979043776,"9":0.37099086240197965}},{"sx":1,"sy":1,"depth":10,"w":{"0":0.3054415932416204,"1":0.7696858638344007,"2":-17.44923385556171,"3":0.1526846168104207,"4":-0.044841313806854,"5":-0.3906016533308044,"6":0.21797396585885054,"7":0.08620870637175358,"8":-21.564300779088754,"9":0.0972342443633977}}],"biases":{"sx":1,"sy":1,"depth":8,"w":{"0":0.03478216840558824,"1":-0.03159946165290925,"2":-0.04116537368432189,"3":0.013781067631082257,"4":-0.03491618760752897,"5":-0.0007118793189798716,"6":0.045056252329898724,"7":-0.03543658358413347}}},{"out_depth":8,"out_sx":1,"out_sy":1,"layer_type":"regression","num_inputs":8}]}
  ]
}